digraph Tree {
node [shape=box] ;
0 [label="TotalWorkingYears <= 1.5\ngini = 0.275\nsamples = 3505\nvalue = [2928, 577]"] ;
1 [label="Age <= 26.5\ngini = 0.499\nsamples = 216\nvalue = [104, 112]"] ;
0 -> 1 [labeldistance=2.5, labelangle=45, headlabel="True"] ;
2 [label="MonthlyIncome <= 112610.0\ngini = 0.438\nsamples = 114\nvalue = [37, 77]"] ;
1 -> 2 ;
3 [label="MonthlyIncome <= 19425.0\ngini = 0.37\nsamples = 94\nvalue = [23, 71]"] ;
2 -> 3 ;
4 [label="gini = 0.0\nsamples = 4\nvalue = [4, 0]"] ;
3 -> 4 ;
5 [label="DistanceFromHome <= 4.5\ngini = 0.333\nsamples = 90\nvalue = [19, 71]"] ;
3 -> 5 ;
6 [label="Education <= 4.5\ngini = 0.194\nsamples = 55\nvalue = [6, 49]"] ;
5 -> 6 ;
7 [label="TrainingTimesLastYear <= 5.5\ngini = 0.142\nsamples = 52\nvalue = [4, 48]"] ;
6 -> 7 ;
8 [label="MonthlyIncome <= 27555.0\ngini = 0.08\nsamples = 48\nvalue = [2, 46]"] ;
7 -> 8 ;
9 [label="MonthlyIncome <= 25730.0\ngini = 0.375\nsamples = 8\nvalue = [2, 6]"] ;
8 -> 9 ;
10 [label="gini = 0.0\nsamples = 6\nvalue = [0, 6]"] ;
9 -> 10 ;
11 [label="gini = 0.0\nsamples = 2\nvalue = [2, 0]"] ;
9 -> 11 ;
12 [label="gini = 0.0\nsamples = 40\nvalue = [0, 40]"] ;
8 -> 12 ;
13 [label="YearsWithCurrManager <= 0.5\ngini = 0.5\nsamples = 4\nvalue = [2, 2]"] ;
7 -> 13 ;
14 [label="gini = 0.0\nsamples = 2\nvalue = [2, 0]"] ;
13 -> 14 ;
15 [label="gini = 0.0\nsamples = 2\nvalue = [0, 2]"] ;
13 -> 15 ;
16 [label="PercentSalaryHike <= 13.0\ngini = 0.444\nsamples = 3\nvalue = [2, 1]"] ;
6 -> 16 ;
17 [label="gini = 0.0\nsamples = 1\nvalue = [0, 1]"] ;
16 -> 17 ;
18 [label="gini = 0.0\nsamples = 2\nvalue = [2, 0]"] ;
16 -> 18 ;
19 [label="PercentSalaryHike <= 18.0\ngini = 0.467\nsamples = 35\nvalue = [13, 22]"] ;
5 -> 19 ;
20 [label="PercentSalaryHike <= 12.5\ngini = 0.499\nsamples = 25\nvalue = [13, 12]"] ;
19 -> 20 ;
21 [label="Age <= 19.0\ngini = 0.375\nsamples = 12\nvalue = [3, 9]"] ;
20 -> 21 ;
22 [label="gini = 0.0\nsamples = 3\nvalue = [3, 0]"] ;
21 -> 22 ;
23 [label="gini = 0.0\nsamples = 9\nvalue = [0, 9]"] ;
21 -> 23 ;
24 [label="MonthlyIncome <= 74535.0\ngini = 0.355\nsamples = 13\nvalue = [10, 3]"] ;
20 -> 24 ;
25 [label="gini = 0.0\nsamples = 8\nvalue = [8, 0]"] ;
24 -> 25 ;
26 [label="PercentSalaryHike <= 15.5\ngini = 0.48\nsamples = 5\nvalue = [2, 3]"] ;
24 -> 26 ;
27 [label="gini = 0.0\nsamples = 3\nvalue = [0, 3]"] ;
26 -> 27 ;
28 [label="gini = 0.0\nsamples = 2\nvalue = [2, 0]"] ;
26 -> 28 ;
29 [label="gini = 0.0\nsamples = 10\nvalue = [0, 10]"] ;
19 -> 29 ;
30 [label="DistanceFromHome <= 5.0\ngini = 0.42\nsamples = 20\nvalue = [14, 6]"] ;
2 -> 30 ;
31 [label="gini = 0.0\nsamples = 13\nvalue = [13, 0]"] ;
30 -> 31 ;
32 [label="PercentSalaryHike <= 13.5\ngini = 0.245\nsamples = 7\nvalue = [1, 6]"] ;
30 -> 32 ;
33 [label="gini = 0.0\nsamples = 1\nvalue = [1, 0]"] ;
32 -> 33 ;
34 [label="gini = 0.0\nsamples = 6\nvalue = [0, 6]"] ;
32 -> 34 ;
35 [label="DistanceFromHome <= 12.5\ngini = 0.451\nsamples = 102\nvalue = [67, 35]"] ;
1 -> 35 ;
36 [label="MonthlyIncome <= 34475.0\ngini = 0.386\nsamples = 88\nvalue = [65, 23]"] ;
35 -> 36 ;
37 [label="MonthlyIncome <= 27270.0\ngini = 0.497\nsamples = 28\nvalue = [15, 13]"] ;
36 -> 37 ;
38 [label="JobRole <= 6.5\ngini = 0.375\nsamples = 20\nvalue = [15, 5]"] ;
37 -> 38 ;
39 [label="TrainingTimesLastYear <= 3.0\ngini = 0.5\nsamples = 10\nvalue = [5, 5]"] ;
38 -> 39 ;
40 [label="PercentSalaryHike <= 16.5\ngini = 0.278\nsamples = 6\nvalue = [1, 5]"] ;
39 -> 40 ;
41 [label="gini = 0.0\nsamples = 5\nvalue = [0, 5]"] ;
40 -> 41 ;
42 [label="gini = 0.0\nsamples = 1\nvalue = [1, 0]"] ;
40 -> 42 ;
43 [label="gini = 0.0\nsamples = 4\nvalue = [4, 0]"] ;
39 -> 43 ;
44 [label="gini = 0.0\nsamples = 10\nvalue = [10, 0]"] ;
38 -> 44 ;
45 [label="gini = 0.0\nsamples = 8\nvalue = [0, 8]"] ;
37 -> 45 ;
46 [label="Age <= 30.5\ngini = 0.278\nsamples = 60\nvalue = [50, 10]"] ;
36 -> 46 ;
47 [label="PercentSalaryHike <= 14.5\ngini = 0.452\nsamples = 29\nvalue = [19, 10]"] ;
46 -> 47 ;
48 [label="DistanceFromHome <= 5.5\ngini = 0.469\nsamples = 16\nvalue = [6, 10]"] ;
47 -> 48 ;
49 [label="JobRole <= 6.5\ngini = 0.375\nsamples = 8\nvalue = [6, 2]"] ;
48 -> 49 ;
50 [label="gini = 0.0\nsamples = 2\nvalue = [0, 2]"] ;
49 -> 50 ;
51 [label="gini = 0.0\nsamples = 6\nvalue = [6, 0]"] ;
49 -> 51 ;
52 [label="gini = 0.0\nsamples = 8\nvalue = [0, 8]"] ;
48 -> 52 ;
53 [label="gini = 0.0\nsamples = 13\nvalue = [13, 0]"] ;
47 -> 53 ;
54 [label="gini = 0.0\nsamples = 31\nvalue = [31, 0]"] ;
46 -> 54 ;
55 [label="DistanceFromHome <= 28.5\ngini = 0.245\nsamples = 14\nvalue = [2, 12]"] ;
35 -> 55 ;
56 [label="gini = 0.0\nsamples = 12\nvalue = [0, 12]"] ;
55 -> 56 ;
57 [label="gini = 0.0\nsamples = 2\nvalue = [2, 0]"] ;
55 -> 57 ;
58 [label="YearsAtCompany <= 4.5\ngini = 0.243\nsamples = 3289\nvalue = [2824, 465]"] ;
0 -> 58 [labeldistance=2.5, labelangle=-45, headlabel="False"] ;
59 [label="Age <= 35.5\ngini = 0.324\nsamples = 1143\nvalue = [911, 232]"] ;
58 -> 59 ;
60 [label="NumCompaniesWorked <= 4.5\ngini = 0.385\nsamples = 558\nvalue = [413, 145]"] ;
59 -> 60 ;
61 [label="MonthlyIncome <= 108380.0\ngini = 0.328\nsamples = 397\nvalue = [315, 82]"] ;
60 -> 61 ;
62 [label="MonthlyIncome <= 26950.0\ngini = 0.271\nsamples = 346\nvalue = [290, 56]"] ;
61 -> 62 ;
63 [label="DistanceFromHome <= 21.5\ngini = 0.414\nsamples = 82\nvalue = [58, 24]"] ;
62 -> 63 ;
64 [label="PercentSalaryHike <= 19.5\ngini = 0.323\nsamples = 69\nvalue = [55, 14]"] ;
63 -> 64 ;
65 [label="MonthlyIncome <= 26865.0\ngini = 0.191\nsamples = 56\nvalue = [50, 6]"] ;
64 -> 65 ;
66 [label="YearsAtCompany <= 1.5\ngini = 0.107\nsamples = 53\nvalue = [50, 3]"] ;
65 -> 66 ;
67 [label="Age <= 27.5\ngini = 0.375\nsamples = 4\nvalue = [1, 3]"] ;
66 -> 67 ;
68 [label="gini = 0.0\nsamples = 1\nvalue = [1, 0]"] ;
67 -> 68 ;
69 [label="gini = 0.0\nsamples = 3\nvalue = [0, 3]"] ;
67 -> 69 ;
70 [label="gini = 0.0\nsamples = 49\nvalue = [49, 0]"] ;
66 -> 70 ;
71 [label="gini = 0.0\nsamples = 3\nvalue = [0, 3]"] ;
65 -> 71 ;
72 [label="NumCompaniesWorked <= 0.5\ngini = 0.473\nsamples = 13\nvalue = [5, 8]"] ;
64 -> 72 ;
73 [label="gini = 0.0\nsamples = 4\nvalue = [4, 0]"] ;
72 -> 73 ;
74 [label="Age <= 27.0\ngini = 0.198\nsamples = 9\nvalue = [1, 8]"] ;
72 -> 74 ;
75 [label="gini = 0.0\nsamples = 1\nvalue = [1, 0]"] ;
74 -> 75 ;
76 [label="gini = 0.0\nsamples = 8\nvalue = [0, 8]"] ;
74 -> 76 ;
77 [label="TrainingTimesLastYear <= 2.5\ngini = 0.355\nsamples = 13\nvalue = [3, 10]"] ;
63 -> 77 ;
78 [label="gini = 0.0\nsamples = 10\nvalue = [0, 10]"] ;
77 -> 78 ;
79 [label="gini = 0.0\nsamples = 3\nvalue = [3, 0]"] ;
77 -> 79 ;
80 [label="Education <= 2.5\ngini = 0.213\nsamples = 264\nvalue = [232, 32]"] ;
62 -> 80 ;
81 [label="NumCompaniesWorked <= 3.5\ngini = 0.369\nsamples = 86\nvalue = [65, 21]"] ;
80 -> 81 ;
82 [label="DistanceFromHome <= 10.0\ngini = 0.329\nsamples = 82\nvalue = [65, 17]"] ;
81 -> 82 ;
83 [label="YearsSinceLastPromotion <= 2.5\ngini = 0.147\nsamples = 50\nvalue = [46, 4]"] ;
82 -> 83 ;
84 [label="JobRole <= 6.5\ngini = 0.08\nsamples = 48\nvalue = [46, 2]"] ;
83 -> 84 ;
85 [label="gini = 0.0\nsamples = 40\nvalue = [40, 0]"] ;
84 -> 85 ;
86 [label="DistanceFromHome <= 4.0\ngini = 0.375\nsamples = 8\nvalue = [6, 2]"] ;
84 -> 86 ;
87 [label="gini = 0.0\nsamples = 2\nvalue = [0, 2]"] ;
86 -> 87 ;
88 [label="gini = 0.0\nsamples = 6\nvalue = [6, 0]"] ;
86 -> 88 ;
89 [label="gini = 0.0\nsamples = 2\nvalue = [0, 2]"] ;
83 -> 89 ;
90 [label="YearsSinceLastPromotion <= 0.5\ngini = 0.482\nsamples = 32\nvalue = [19, 13]"] ;
82 -> 90 ;
91 [label="gini = 0.0\nsamples = 7\nvalue = [0, 7]"] ;
90 -> 91 ;
92 [label="DistanceFromHome <= 15.5\ngini = 0.365\nsamples = 25\nvalue = [19, 6]"] ;
90 -> 92 ;
93 [label="TrainingTimesLastYear <= 2.5\ngini = 0.444\nsamples = 6\nvalue = [2, 4]"] ;
92 -> 93 ;
94 [label="gini = 0.0\nsamples = 4\nvalue = [0, 4]"] ;
93 -> 94 ;
95 [label="gini = 0.0\nsamples = 2\nvalue = [2, 0]"] ;
93 -> 95 ;
96 [label="Age <= 21.5\ngini = 0.188\nsamples = 19\nvalue = [17, 2]"] ;
92 -> 96 ;
97 [label="DistanceFromHome <= 18.0\ngini = 0.5\nsamples = 4\nvalue = [2, 2]"] ;
96 -> 97 ;
98 [label="gini = 0.0\nsamples = 2\nvalue = [2, 0]"] ;
97 -> 98 ;
99 [label="gini = 0.0\nsamples = 2\nvalue = [0, 2]"] ;
97 -> 99 ;
100 [label="gini = 0.0\nsamples = 15\nvalue = [15, 0]"] ;
96 -> 100 ;
101 [label="gini = 0.0\nsamples = 4\nvalue = [0, 4]"] ;
81 -> 101 ;
102 [label="TrainingTimesLastYear <= 5.5\ngini = 0.116\nsamples = 178\nvalue = [167, 11]"] ;
80 -> 102 ;
103 [label="YearsAtCompany <= 2.5\ngini = 0.107\nsamples = 177\nvalue = [167, 10]"] ;
102 -> 103 ;
104 [label="DistanceFromHome <= 12.5\ngini = 0.206\nsamples = 77\nvalue = [68, 9]"] ;
103 -> 104 ;
105 [label="MonthlyIncome <= 43375.0\ngini = 0.32\nsamples = 45\nvalue = [36, 9]"] ;
104 -> 105 ;
106 [label="MonthlyIncome <= 31655.0\ngini = 0.49\nsamples = 14\nvalue = [8, 6]"] ;
105 -> 106 ;
107 [label="gini = 0.0\nsamples = 8\nvalue = [8, 0]"] ;
106 -> 107 ;
108 [label="gini = 0.0\nsamples = 6\nvalue = [0, 6]"] ;
106 -> 108 ;
109 [label="YearsWithCurrManager <= 0.5\ngini = 0.175\nsamples = 31\nvalue = [28, 3]"] ;
105 -> 109 ;
110 [label="JobRole <= 5.0\ngini = 0.48\nsamples = 5\nvalue = [3, 2]"] ;
109 -> 110 ;
111 [label="gini = 0.0\nsamples = 3\nvalue = [3, 0]"] ;
110 -> 111 ;
112 [label="gini = 0.0\nsamples = 2\nvalue = [0, 2]"] ;
110 -> 112 ;
113 [label="JobRole <= 5.5\ngini = 0.074\nsamples = 26\nvalue = [25, 1]"] ;
109 -> 113 ;
114 [label="DistanceFromHome <= 8.0\ngini = 0.245\nsamples = 7\nvalue = [6, 1]"] ;
113 -> 114 ;
115 [label="gini = 0.0\nsamples = 6\nvalue = [6, 0]"] ;
114 -> 115 ;
116 [label="gini = 0.0\nsamples = 1\nvalue = [0, 1]"] ;
114 -> 116 ;
117 [label="gini = 0.0\nsamples = 19\nvalue = [19, 0]"] ;
113 -> 117 ;
118 [label="gini = 0.0\nsamples = 32\nvalue = [32, 0]"] ;
104 -> 118 ;
119 [label="TrainingTimesLastYear <= 4.5\ngini = 0.02\nsamples = 100\nvalue = [99, 1]"] ;
103 -> 119 ;
120 [label="gini = 0.0\nsamples = 98\nvalue = [98, 0]"] ;
119 -> 120 ;
121 [label="YearsWithCurrManager <= 2.5\ngini = 0.5\nsamples = 2\nvalue = [1, 1]"] ;
119 -> 121 ;
122 [label="gini = 0.0\nsamples = 1\nvalue = [0, 1]"] ;
121 -> 122 ;
123 [label="gini = 0.0\nsamples = 1\nvalue = [1, 0]"] ;
121 -> 123 ;
124 [label="gini = 0.0\nsamples = 1\nvalue = [0, 1]"] ;
102 -> 124 ;
125 [label="DistanceFromHome <= 7.5\ngini = 0.5\nsamples = 51\nvalue = [25, 26]"] ;
61 -> 125 ;
126 [label="Age <= 33.0\ngini = 0.365\nsamples = 25\nvalue = [19, 6]"] ;
125 -> 126 ;
127 [label="gini = 0.0\nsamples = 19\nvalue = [19, 0]"] ;
126 -> 127 ;
128 [label="gini = 0.0\nsamples = 6\nvalue = [0, 6]"] ;
126 -> 128 ;
129 [label="DistanceFromHome <= 19.5\ngini = 0.355\nsamples = 26\nvalue = [6, 20]"] ;
125 -> 129 ;
130 [label="TrainingTimesLastYear <= 4.0\ngini = 0.172\nsamples = 21\nvalue = [2, 19]"] ;
129 -> 130 ;
131 [label="gini = 0.0\nsamples = 16\nvalue = [0, 16]"] ;
130 -> 131 ;
132 [label="Age <= 24.0\ngini = 0.48\nsamples = 5\nvalue = [2, 3]"] ;
130 -> 132 ;
133 [label="gini = 0.0\nsamples = 3\nvalue = [0, 3]"] ;
132 -> 133 ;
134 [label="gini = 0.0\nsamples = 2\nvalue = [2, 0]"] ;
132 -> 134 ;
135 [label="Age <= 26.0\ngini = 0.32\nsamples = 5\nvalue = [4, 1]"] ;
129 -> 135 ;
136 [label="gini = 0.0\nsamples = 4\nvalue = [4, 0]"] ;
135 -> 136 ;
137 [label="gini = 0.0\nsamples = 1\nvalue = [0, 1]"] ;
135 -> 137 ;
138 [label="TotalWorkingYears <= 7.5\ngini = 0.476\nsamples = 161\nvalue = [98, 63]"] ;
60 -> 138 ;
139 [label="PercentSalaryHike <= 16.5\ngini = 0.498\nsamples = 113\nvalue = [60, 53]"] ;
138 -> 139 ;
140 [label="TrainingTimesLastYear <= 4.5\ngini = 0.471\nsamples = 58\nvalue = [22, 36]"] ;
139 -> 140 ;
141 [label="DistanceFromHome <= 23.5\ngini = 0.436\nsamples = 53\nvalue = [17, 36]"] ;
140 -> 141 ;
142 [label="JobRole <= 6.5\ngini = 0.403\nsamples = 50\nvalue = [14, 36]"] ;
141 -> 142 ;
143 [label="YearsSinceLastPromotion <= 1.5\ngini = 0.284\nsamples = 35\nvalue = [6, 29]"] ;
142 -> 143 ;
144 [label="Age <= 31.0\ngini = 0.091\nsamples = 21\nvalue = [1, 20]"] ;
143 -> 144 ;
145 [label="gini = 0.0\nsamples = 17\nvalue = [0, 17]"] ;
144 -> 145 ;
146 [label="Age <= 32.5\ngini = 0.375\nsamples = 4\nvalue = [1, 3]"] ;
144 -> 146 ;
147 [label="gini = 0.0\nsamples = 1\nvalue = [1, 0]"] ;
146 -> 147 ;
148 [label="gini = 0.0\nsamples = 3\nvalue = [0, 3]"] ;
146 -> 148 ;
149 [label="PercentSalaryHike <= 12.5\ngini = 0.459\nsamples = 14\nvalue = [5, 9]"] ;
143 -> 149 ;
150 [label="gini = 0.0\nsamples = 9\nvalue = [0, 9]"] ;
149 -> 150 ;
151 [label="gini = 0.0\nsamples = 5\nvalue = [5, 0]"] ;
149 -> 151 ;
152 [label="Age <= 29.5\ngini = 0.498\nsamples = 15\nvalue = [8, 7]"] ;
142 -> 152 ;
153 [label="Age <= 27.5\ngini = 0.42\nsamples = 10\nvalue = [3, 7]"] ;
152 -> 153 ;
154 [label="gini = 0.0\nsamples = 3\nvalue = [3, 0]"] ;
153 -> 154 ;
155 [label="gini = 0.0\nsamples = 7\nvalue = [0, 7]"] ;
153 -> 155 ;
156 [label="gini = 0.0\nsamples = 5\nvalue = [5, 0]"] ;
152 -> 156 ;
157 [label="gini = 0.0\nsamples = 3\nvalue = [3, 0]"] ;
141 -> 157 ;
158 [label="gini = 0.0\nsamples = 5\nvalue = [5, 0]"] ;
140 -> 158 ;
159 [label="TrainingTimesLastYear <= 3.5\ngini = 0.427\nsamples = 55\nvalue = [38, 17]"] ;
139 -> 159 ;
160 [label="TotalWorkingYears <= 3.5\ngini = 0.303\nsamples = 43\nvalue = [35, 8]"] ;
159 -> 160 ;
161 [label="gini = 0.0\nsamples = 5\nvalue = [0, 5]"] ;
160 -> 161 ;
162 [label="YearsAtCompany <= 3.5\ngini = 0.145\nsamples = 38\nvalue = [35, 3]"] ;
160 -> 162 ;
163 [label="gini = 0.0\nsamples = 33\nvalue = [33, 0]"] ;
162 -> 163 ;
164 [label="NumCompaniesWorked <= 7.0\ngini = 0.48\nsamples = 5\nvalue = [2, 3]"] ;
162 -> 164 ;
165 [label="gini = 0.0\nsamples = 3\nvalue = [0, 3]"] ;
164 -> 165 ;
166 [label="gini = 0.0\nsamples = 2\nvalue = [2, 0]"] ;
164 -> 166 ;
167 [label="JobRole <= 1.0\ngini = 0.375\nsamples = 12\nvalue = [3, 9]"] ;
159 -> 167 ;
168 [label="gini = 0.0\nsamples = 3\nvalue = [3, 0]"] ;
167 -> 168 ;
169 [label="gini = 0.0\nsamples = 9\nvalue = [0, 9]"] ;
167 -> 169 ;
170 [label="PercentSalaryHike <= 21.5\ngini = 0.33\nsamples = 48\nvalue = [38, 10]"] ;
138 -> 170 ;
171 [label="YearsAtCompany <= 0.5\ngini = 0.236\nsamples = 44\nvalue = [38, 6]"] ;
170 -> 171 ;
172 [label="NumCompaniesWorked <= 5.5\ngini = 0.48\nsamples = 10\nvalue = [4, 6]"] ;
171 -> 172 ;
173 [label="gini = 0.0\nsamples = 4\nvalue = [4, 0]"] ;
172 -> 173 ;
174 [label="gini = 0.0\nsamples = 6\nvalue = [0, 6]"] ;
172 -> 174 ;
175 [label="gini = 0.0\nsamples = 34\nvalue = [34, 0]"] ;
171 -> 175 ;
176 [label="gini = 0.0\nsamples = 4\nvalue = [0, 4]"] ;
170 -> 176 ;
177 [label="DistanceFromHome <= 19.5\ngini = 0.253\nsamples = 585\nvalue = [498, 87]"] ;
59 -> 177 ;
178 [label="YearsWithCurrManager <= 0.5\ngini = 0.298\nsamples = 477\nvalue = [390, 87]"] ;
177 -> 178 ;
179 [label="NumCompaniesWorked <= 8.5\ngini = 0.381\nsamples = 203\nvalue = [151, 52]"] ;
178 -> 179 ;
180 [label="MonthlyIncome <= 34145.0\ngini = 0.353\nsamples = 192\nvalue = [148, 44]"] ;
179 -> 180 ;
181 [label="YearsAtCompany <= 3.5\ngini = 0.101\nsamples = 56\nvalue = [53, 3]"] ;
180 -> 181 ;
182 [label="gini = 0.0\nsamples = 53\nvalue = [53, 0]"] ;
181 -> 182 ;
183 [label="gini = 0.0\nsamples = 3\nvalue = [0, 3]"] ;
181 -> 183 ;
184 [label="Age <= 39.5\ngini = 0.421\nsamples = 136\nvalue = [95, 41]"] ;
180 -> 184 ;
185 [label="MonthlyIncome <= 61565.0\ngini = 0.493\nsamples = 43\nvalue = [19, 24]"] ;
184 -> 185 ;
186 [label="JobRole <= 7.5\ngini = 0.172\nsamples = 21\nvalue = [2, 19]"] ;
185 -> 186 ;
187 [label="gini = 0.0\nsamples = 19\nvalue = [0, 19]"] ;
186 -> 187 ;
188 [label="gini = 0.0\nsamples = 2\nvalue = [2, 0]"] ;
186 -> 188 ;
189 [label="TotalWorkingYears <= 3.0\ngini = 0.351\nsamples = 22\nvalue = [17, 5]"] ;
185 -> 189 ;
190 [label="gini = 0.0\nsamples = 2\nvalue = [0, 2]"] ;
189 -> 190 ;
191 [label="Education <= 3.5\ngini = 0.255\nsamples = 20\nvalue = [17, 3]"] ;
189 -> 191 ;
192 [label="gini = 0.0\nsamples = 14\nvalue = [14, 0]"] ;
191 -> 192 ;
193 [label="PercentSalaryHike <= 17.5\ngini = 0.5\nsamples = 6\nvalue = [3, 3]"] ;
191 -> 193 ;
194 [label="gini = 0.0\nsamples = 3\nvalue = [0, 3]"] ;
193 -> 194 ;
195 [label="gini = 0.0\nsamples = 3\nvalue = [3, 0]"] ;
193 -> 195 ;
196 [label="MonthlyIncome <= 35610.0\ngini = 0.299\nsamples = 93\nvalue = [76, 17]"] ;
184 -> 196 ;
197 [label="gini = 0.0\nsamples = 3\nvalue = [0, 3]"] ;
196 -> 197 ;
198 [label="YearsSinceLastPromotion <= 1.5\ngini = 0.263\nsamples = 90\nvalue = [76, 14]"] ;
196 -> 198 ;
199 [label="JobRole <= 7.5\ngini = 0.221\nsamples = 87\nvalue = [76, 11]"] ;
198 -> 199 ;
200 [label="JobRole <= 1.5\ngini = 0.176\nsamples = 82\nvalue = [74, 8]"] ;
199 -> 200 ;
201 [label="MonthlyIncome <= 67140.0\ngini = 0.444\nsamples = 9\nvalue = [6, 3]"] ;
200 -> 201 ;
202 [label="gini = 0.0\nsamples = 3\nvalue = [0, 3]"] ;
201 -> 202 ;
203 [label="gini = 0.0\nsamples = 6\nvalue = [6, 0]"] ;
201 -> 203 ;
204 [label="Education <= 2.5\ngini = 0.128\nsamples = 73\nvalue = [68, 5]"] ;
200 -> 204 ;
205 [label="DistanceFromHome <= 8.5\ngini = 0.298\nsamples = 22\nvalue = [18, 4]"] ;
204 -> 205 ;
206 [label="MonthlyIncome <= 88695.0\ngini = 0.18\nsamples = 20\nvalue = [18, 2]"] ;
205 -> 206 ;
207 [label="gini = 0.0\nsamples = 16\nvalue = [16, 0]"] ;
206 -> 207 ;
208 [label="DistanceFromHome <= 4.5\ngini = 0.5\nsamples = 4\nvalue = [2, 2]"] ;
206 -> 208 ;
209 [label="gini = 0.0\nsamples = 2\nvalue = [0, 2]"] ;
208 -> 209 ;
210 [label="gini = 0.0\nsamples = 2\nvalue = [2, 0]"] ;
208 -> 210 ;
211 [label="gini = 0.0\nsamples = 2\nvalue = [0, 2]"] ;
205 -> 211 ;
212 [label="MonthlyIncome <= 146145.0\ngini = 0.038\nsamples = 51\nvalue = [50, 1]"] ;
204 -> 212 ;
213 [label="gini = 0.0\nsamples = 42\nvalue = [42, 0]"] ;
212 -> 213 ;
214 [label="TotalWorkingYears <= 5.5\ngini = 0.198\nsamples = 9\nvalue = [8, 1]"] ;
212 -> 214 ;
215 [label="gini = 0.0\nsamples = 1\nvalue = [0, 1]"] ;
214 -> 215 ;
216 [label="gini = 0.0\nsamples = 8\nvalue = [8, 0]"] ;
214 -> 216 ;
217 [label="Age <= 48.5\ngini = 0.48\nsamples = 5\nvalue = [2, 3]"] ;
199 -> 217 ;
218 [label="gini = 0.0\nsamples = 3\nvalue = [0, 3]"] ;
217 -> 218 ;
219 [label="gini = 0.0\nsamples = 2\nvalue = [2, 0]"] ;
217 -> 219 ;
220 [label="gini = 0.0\nsamples = 3\nvalue = [0, 3]"] ;
198 -> 220 ;
221 [label="Age <= 41.5\ngini = 0.397\nsamples = 11\nvalue = [3, 8]"] ;
179 -> 221 ;
222 [label="gini = 0.0\nsamples = 3\nvalue = [3, 0]"] ;
221 -> 222 ;
223 [label="gini = 0.0\nsamples = 8\nvalue = [0, 8]"] ;
221 -> 223 ;
224 [label="MonthlyIncome <= 67040.0\ngini = 0.223\nsamples = 274\nvalue = [239, 35]"] ;
178 -> 224 ;
225 [label="MonthlyIncome <= 66850.0\ngini = 0.293\nsamples = 196\nvalue = [161, 35]"] ;
224 -> 225 ;
226 [label="DistanceFromHome <= 15.5\ngini = 0.277\nsamples = 193\nvalue = [161, 32]"] ;
225 -> 226 ;
227 [label="PercentSalaryHike <= 11.5\ngini = 0.234\nsamples = 177\nvalue = [153, 24]"] ;
226 -> 227 ;
228 [label="JobRole <= 5.5\ngini = 0.48\nsamples = 20\nvalue = [12, 8]"] ;
227 -> 228 ;
229 [label="YearsSinceLastPromotion <= 1.5\ngini = 0.32\nsamples = 10\nvalue = [2, 8]"] ;
228 -> 229 ;
230 [label="gini = 0.0\nsamples = 8\nvalue = [0, 8]"] ;
229 -> 230 ;
231 [label="gini = 0.0\nsamples = 2\nvalue = [2, 0]"] ;
229 -> 231 ;
232 [label="gini = 0.0\nsamples = 10\nvalue = [10, 0]"] ;
228 -> 232 ;
233 [label="Education <= 4.5\ngini = 0.183\nsamples = 157\nvalue = [141, 16]"] ;
227 -> 233 ;
234 [label="Age <= 37.5\ngini = 0.156\nsamples = 152\nvalue = [139, 13]"] ;
233 -> 234 ;
235 [label="PercentSalaryHike <= 15.5\ngini = 0.444\nsamples = 15\nvalue = [10, 5]"] ;
234 -> 235 ;
236 [label="gini = 0.0\nsamples = 10\nvalue = [10, 0]"] ;
235 -> 236 ;
237 [label="gini = 0.0\nsamples = 5\nvalue = [0, 5]"] ;
235 -> 237 ;
238 [label="JobRole <= 6.5\ngini = 0.11\nsamples = 137\nvalue = [129, 8]"] ;
234 -> 238 ;
239 [label="NumCompaniesWorked <= 7.5\ngini = 0.034\nsamples = 115\nvalue = [113, 2]"] ;
238 -> 239 ;
240 [label="gini = 0.0\nsamples = 99\nvalue = [99, 0]"] ;
239 -> 240 ;
241 [label="YearsWithCurrManager <= 2.5\ngini = 0.219\nsamples = 16\nvalue = [14, 2]"] ;
239 -> 241 ;
242 [label="gini = 0.0\nsamples = 14\nvalue = [14, 0]"] ;
241 -> 242 ;
243 [label="gini = 0.0\nsamples = 2\nvalue = [0, 2]"] ;
241 -> 243 ;
244 [label="Age <= 42.5\ngini = 0.397\nsamples = 22\nvalue = [16, 6]"] ;
238 -> 244 ;
245 [label="gini = 0.0\nsamples = 3\nvalue = [0, 3]"] ;
244 -> 245 ;
246 [label="YearsWithCurrManager <= 2.5\ngini = 0.266\nsamples = 19\nvalue = [16, 3]"] ;
244 -> 246 ;
247 [label="gini = 0.0\nsamples = 16\nvalue = [16, 0]"] ;
246 -> 247 ;
248 [label="gini = 0.0\nsamples = 3\nvalue = [0, 3]"] ;
246 -> 248 ;
249 [label="MonthlyIncome <= 23000.0\ngini = 0.48\nsamples = 5\nvalue = [2, 3]"] ;
233 -> 249 ;
250 [label="gini = 0.0\nsamples = 2\nvalue = [2, 0]"] ;
249 -> 250 ;
251 [label="gini = 0.0\nsamples = 3\nvalue = [0, 3]"] ;
249 -> 251 ;
252 [label="PercentSalaryHike <= 14.5\ngini = 0.5\nsamples = 16\nvalue = [8, 8]"] ;
226 -> 252 ;
253 [label="gini = 0.0\nsamples = 8\nvalue = [8, 0]"] ;
252 -> 253 ;
254 [label="gini = 0.0\nsamples = 8\nvalue = [0, 8]"] ;
252 -> 254 ;
255 [label="gini = 0.0\nsamples = 3\nvalue = [0, 3]"] ;
225 -> 255 ;
256 [label="gini = 0.0\nsamples = 78\nvalue = [78, 0]"] ;
224 -> 256 ;
257 [label="gini = 0.0\nsamples = 108\nvalue = [108, 0]"] ;
177 -> 257 ;
258 [label="TotalWorkingYears <= 39.0\ngini = 0.194\nsamples = 2146\nvalue = [1913, 233]"] ;
58 -> 258 ;
259 [label="MonthlyIncome <= 10305.0\ngini = 0.19\nsamples = 2141\nvalue = [1913, 228]"] ;
258 -> 259 ;
260 [label="gini = 0.0\nsamples = 3\nvalue = [0, 3]"] ;
259 -> 260 ;
261 [label="Age <= 26.5\ngini = 0.188\nsamples = 2138\nvalue = [1913, 225]"] ;
259 -> 261 ;
262 [label="DistanceFromHome <= 20.5\ngini = 0.368\nsamples = 115\nvalue = [87, 28]"] ;
261 -> 262 ;
263 [label="YearsWithCurrManager <= 1.0\ngini = 0.315\nsamples = 102\nvalue = [82, 20]"] ;
262 -> 263 ;
264 [label="gini = 0.0\nsamples = 3\nvalue = [0, 3]"] ;
263 -> 264 ;
265 [label="TrainingTimesLastYear <= 2.5\ngini = 0.284\nsamples = 99\nvalue = [82, 17]"] ;
263 -> 265 ;
266 [label="gini = 0.0\nsamples = 29\nvalue = [29, 0]"] ;
265 -> 266 ;
267 [label="Age <= 23.5\ngini = 0.368\nsamples = 70\nvalue = [53, 17]"] ;
265 -> 267 ;
268 [label="gini = 0.0\nsamples = 3\nvalue = [0, 3]"] ;
267 -> 268 ;
269 [label="YearsWithCurrManager <= 5.0\ngini = 0.331\nsamples = 67\nvalue = [53, 14]"] ;
267 -> 269 ;
270 [label="YearsSinceLastPromotion <= 5.5\ngini = 0.413\nsamples = 48\nvalue = [34, 14]"] ;
269 -> 270 ;
271 [label="NumCompaniesWorked <= 0.5\ngini = 0.369\nsamples = 45\nvalue = [34, 11]"] ;
270 -> 271 ;
272 [label="JobRole <= 2.5\ngini = 0.494\nsamples = 9\nvalue = [4, 5]"] ;
271 -> 272 ;
273 [label="gini = 0.0\nsamples = 4\nvalue = [4, 0]"] ;
272 -> 273 ;
274 [label="gini = 0.0\nsamples = 5\nvalue = [0, 5]"] ;
272 -> 274 ;
275 [label="Education <= 2.0\ngini = 0.278\nsamples = 36\nvalue = [30, 6]"] ;
271 -> 275 ;
276 [label="Age <= 24.5\ngini = 0.48\nsamples = 5\nvalue = [2, 3]"] ;
275 -> 276 ;
277 [label="gini = 0.0\nsamples = 2\nvalue = [2, 0]"] ;
276 -> 277 ;
278 [label="gini = 0.0\nsamples = 3\nvalue = [0, 3]"] ;
276 -> 278 ;
279 [label="DistanceFromHome <= 2.5\ngini = 0.175\nsamples = 31\nvalue = [28, 3]"] ;
275 -> 279 ;
280 [label="DistanceFromHome <= 1.5\ngini = 0.469\nsamples = 8\nvalue = [5, 3]"] ;
279 -> 280 ;
281 [label="gini = 0.0\nsamples = 5\nvalue = [5, 0]"] ;
280 -> 281 ;
282 [label="gini = 0.0\nsamples = 3\nvalue = [0, 3]"] ;
280 -> 282 ;
283 [label="gini = 0.0\nsamples = 23\nvalue = [23, 0]"] ;
279 -> 283 ;
284 [label="gini = 0.0\nsamples = 3\nvalue = [0, 3]"] ;
270 -> 284 ;
285 [label="gini = 0.0\nsamples = 19\nvalue = [19, 0]"] ;
269 -> 285 ;
286 [label="DistanceFromHome <= 27.5\ngini = 0.473\nsamples = 13\nvalue = [5, 8]"] ;
262 -> 286 ;
287 [label="gini = 0.0\nsamples = 8\nvalue = [0, 8]"] ;
286 -> 287 ;
288 [label="gini = 0.0\nsamples = 5\nvalue = [5, 0]"] ;
286 -> 288 ;
289 [label="NumCompaniesWorked <= 4.5\ngini = 0.176\nsamples = 2023\nvalue = [1826, 197]"] ;
261 -> 289 ;
290 [label="YearsSinceLastPromotion <= 5.5\ngini = 0.152\nsamples = 1648\nvalue = [1511, 137]"] ;
289 -> 290 ;
291 [label="YearsWithCurrManager <= 0.5\ngini = 0.118\nsamples = 1234\nvalue = [1156, 78]"] ;
290 -> 291 ;
292 [label="DistanceFromHome <= 26.5\ngini = 0.304\nsamples = 75\nvalue = [61, 14]"] ;
291 -> 292 ;
293 [label="PercentSalaryHike <= 11.5\ngini = 0.259\nsamples = 72\nvalue = [61, 11]"] ;
292 -> 293 ;
294 [label="gini = 0.0\nsamples = 3\nvalue = [0, 3]"] ;
293 -> 294 ;
295 [label="MonthlyIncome <= 47110.0\ngini = 0.205\nsamples = 69\nvalue = [61, 8]"] ;
293 -> 295 ;
296 [label="gini = 0.0\nsamples = 43\nvalue = [43, 0]"] ;
295 -> 296 ;
297 [label="NumCompaniesWorked <= 1.5\ngini = 0.426\nsamples = 26\nvalue = [18, 8]"] ;
295 -> 297 ;
298 [label="gini = 0.0\nsamples = 11\nvalue = [11, 0]"] ;
297 -> 298 ;
299 [label="Age <= 43.5\ngini = 0.498\nsamples = 15\nvalue = [7, 8]"] ;
297 -> 299 ;
300 [label="gini = 0.0\nsamples = 8\nvalue = [0, 8]"] ;
299 -> 300 ;
301 [label="gini = 0.0\nsamples = 7\nvalue = [7, 0]"] ;
299 -> 301 ;
302 [label="gini = 0.0\nsamples = 3\nvalue = [0, 3]"] ;
292 -> 302 ;
303 [label="PercentSalaryHike <= 18.5\ngini = 0.104\nsamples = 1159\nvalue = [1095, 64]"] ;
291 -> 303 ;
304 [label="JobRole <= 6.5\ngini = 0.077\nsamples = 925\nvalue = [888, 37]"] ;
303 -> 304 ;
305 [label="YearsAtCompany <= 23.0\ngini = 0.044\nsamples = 668\nvalue = [653, 15]"] ;
304 -> 305 ;
306 [label="NumCompaniesWorked <= 3.5\ngini = 0.036\nsamples = 654\nvalue = [642, 12]"] ;
305 -> 306 ;
307 [label="DistanceFromHome <= 28.5\ngini = 0.02\nsamples = 584\nvalue = [578, 6]"] ;
306 -> 307 ;
308 [label="DistanceFromHome <= 9.5\ngini = 0.014\nsamples = 569\nvalue = [565, 4]"] ;
307 -> 308 ;
309 [label="gini = 0.0\nsamples = 375\nvalue = [375, 0]"] ;
308 -> 309 ;
310 [label="TotalWorkingYears <= 10.5\ngini = 0.04\nsamples = 194\nvalue = [190, 4]"] ;
308 -> 310 ;
311 [label="Age <= 43.5\ngini = 0.082\nsamples = 93\nvalue = [89, 4]"] ;
310 -> 311 ;
312 [label="YearsWithCurrManager <= 7.5\ngini = 0.045\nsamples = 86\nvalue = [84, 2]"] ;
311 -> 312 ;
313 [label="gini = 0.0\nsamples = 75\nvalue = [75, 0]"] ;
312 -> 313 ;
314 [label="DistanceFromHome <= 18.5\ngini = 0.298\nsamples = 11\nvalue = [9, 2]"] ;
312 -> 314 ;
315 [label="gini = 0.0\nsamples = 9\nvalue = [9, 0]"] ;
314 -> 315 ;
316 [label="gini = 0.0\nsamples = 2\nvalue = [0, 2]"] ;
314 -> 316 ;
317 [label="MonthlyIncome <= 39555.0\ngini = 0.408\nsamples = 7\nvalue = [5, 2]"] ;
311 -> 317 ;
318 [label="gini = 0.0\nsamples = 2\nvalue = [0, 2]"] ;
317 -> 318 ;
319 [label="gini = 0.0\nsamples = 5\nvalue = [5, 0]"] ;
317 -> 319 ;
320 [label="gini = 0.0\nsamples = 101\nvalue = [101, 0]"] ;
310 -> 320 ;
321 [label="TrainingTimesLastYear <= 1.0\ngini = 0.231\nsamples = 15\nvalue = [13, 2]"] ;
307 -> 321 ;
322 [label="gini = 0.0\nsamples = 2\nvalue = [0, 2]"] ;
321 -> 322 ;
323 [label="gini = 0.0\nsamples = 13\nvalue = [13, 0]"] ;
321 -> 323 ;
324 [label="TotalWorkingYears <= 7.5\ngini = 0.157\nsamples = 70\nvalue = [64, 6]"] ;
306 -> 324 ;
325 [label="MonthlyIncome <= 46730.0\ngini = 0.375\nsamples = 4\nvalue = [1, 3]"] ;
324 -> 325 ;
326 [label="gini = 0.0\nsamples = 3\nvalue = [0, 3]"] ;
325 -> 326 ;
327 [label="gini = 0.0\nsamples = 1\nvalue = [1, 0]"] ;
325 -> 327 ;
328 [label="Age <= 45.5\ngini = 0.087\nsamples = 66\nvalue = [63, 3]"] ;
324 -> 328 ;
329 [label="gini = 0.0\nsamples = 54\nvalue = [54, 0]"] ;
328 -> 329 ;
330 [label="Age <= 50.0\ngini = 0.375\nsamples = 12\nvalue = [9, 3]"] ;
328 -> 330 ;
331 [label="gini = 0.0\nsamples = 3\nvalue = [0, 3]"] ;
330 -> 331 ;
332 [label="gini = 0.0\nsamples = 9\nvalue = [9, 0]"] ;
330 -> 332 ;
333 [label="TotalWorkingYears <= 26.5\ngini = 0.337\nsamples = 14\nvalue = [11, 3]"] ;
305 -> 333 ;
334 [label="gini = 0.0\nsamples = 3\nvalue = [0, 3]"] ;
333 -> 334 ;
335 [label="gini = 0.0\nsamples = 11\nvalue = [11, 0]"] ;
333 -> 335 ;
336 [label="DistanceFromHome <= 6.5\ngini = 0.157\nsamples = 257\nvalue = [235, 22]"] ;
304 -> 336 ;
337 [label="NumCompaniesWorked <= 1.5\ngini = 0.26\nsamples = 117\nvalue = [99, 18]"] ;
336 -> 337 ;
338 [label="YearsWithCurrManager <= 7.5\ngini = 0.416\nsamples = 61\nvalue = [43, 18]"] ;
337 -> 338 ;
339 [label="PercentSalaryHike <= 12.5\ngini = 0.499\nsamples = 25\nvalue = [12, 13]"] ;
338 -> 339 ;
340 [label="gini = 0.0\nsamples = 9\nvalue = [9, 0]"] ;
339 -> 340 ;
341 [label="Education <= 4.5\ngini = 0.305\nsamples = 16\nvalue = [3, 13]"] ;
339 -> 341 ;
342 [label="gini = 0.0\nsamples = 13\nvalue = [0, 13]"] ;
341 -> 342 ;
343 [label="gini = 0.0\nsamples = 3\nvalue = [3, 0]"] ;
341 -> 343 ;
344 [label="TrainingTimesLastYear <= 4.5\ngini = 0.239\nsamples = 36\nvalue = [31, 5]"] ;
338 -> 344 ;
345 [label="Education <= 1.5\ngini = 0.114\nsamples = 33\nvalue = [31, 2]"] ;
344 -> 345 ;
346 [label="gini = 0.0\nsamples = 2\nvalue = [0, 2]"] ;
345 -> 346 ;
347 [label="gini = 0.0\nsamples = 31\nvalue = [31, 0]"] ;
345 -> 347 ;
348 [label="gini = 0.0\nsamples = 3\nvalue = [0, 3]"] ;
344 -> 348 ;
349 [label="gini = 0.0\nsamples = 56\nvalue = [56, 0]"] ;
337 -> 349 ;
350 [label="MonthlyIncome <= 22555.0\ngini = 0.056\nsamples = 140\nvalue = [136, 4]"] ;
336 -> 350 ;
351 [label="MonthlyIncome <= 22190.0\ngini = 0.397\nsamples = 11\nvalue = [8, 3]"] ;
350 -> 351 ;
352 [label="gini = 0.0\nsamples = 8\nvalue = [8, 0]"] ;
351 -> 352 ;
353 [label="gini = 0.0\nsamples = 3\nvalue = [0, 3]"] ;
351 -> 353 ;
354 [label="YearsSinceLastPromotion <= 2.5\ngini = 0.015\nsamples = 129\nvalue = [128, 1]"] ;
350 -> 354 ;
355 [label="gini = 0.0\nsamples = 112\nvalue = [112, 0]"] ;
354 -> 355 ;
356 [label="NumCompaniesWorked <= 3.0\ngini = 0.111\nsamples = 17\nvalue = [16, 1]"] ;
354 -> 356 ;
357 [label="gini = 0.0\nsamples = 16\nvalue = [16, 0]"] ;
356 -> 357 ;
358 [label="gini = 0.0\nsamples = 1\nvalue = [0, 1]"] ;
356 -> 358 ;
359 [label="YearsAtCompany <= 27.5\ngini = 0.204\nsamples = 234\nvalue = [207, 27]"] ;
303 -> 359 ;
360 [label="DistanceFromHome <= 2.5\ngini = 0.186\nsamples = 231\nvalue = [207, 24]"] ;
359 -> 360 ;
361 [label="MonthlyIncome <= 46560.0\ngini = 0.36\nsamples = 51\nvalue = [39, 12]"] ;
360 -> 361 ;
362 [label="gini = 0.0\nsamples = 26\nvalue = [26, 0]"] ;
361 -> 362 ;
363 [label="JobRole <= 3.0\ngini = 0.499\nsamples = 25\nvalue = [13, 12]"] ;
361 -> 363 ;
364 [label="gini = 0.0\nsamples = 6\nvalue = [6, 0]"] ;
363 -> 364 ;
365 [label="YearsWithCurrManager <= 3.5\ngini = 0.465\nsamples = 19\nvalue = [7, 12]"] ;
363 -> 365 ;
366 [label="gini = 0.0\nsamples = 5\nvalue = [5, 0]"] ;
365 -> 366 ;
367 [label="TrainingTimesLastYear <= 3.5\ngini = 0.245\nsamples = 14\nvalue = [2, 12]"] ;
365 -> 367 ;
368 [label="Education <= 3.5\ngini = 0.142\nsamples = 13\nvalue = [1, 12]"] ;
367 -> 368 ;
369 [label="gini = 0.0\nsamples = 12\nvalue = [0, 12]"] ;
368 -> 369 ;
370 [label="gini = 0.0\nsamples = 1\nvalue = [1, 0]"] ;
368 -> 370 ;
371 [label="gini = 0.0\nsamples = 1\nvalue = [1, 0]"] ;
367 -> 371 ;
372 [label="MonthlyIncome <= 17915.0\ngini = 0.124\nsamples = 180\nvalue = [168, 12]"] ;
360 -> 372 ;
373 [label="YearsWithCurrManager <= 6.5\ngini = 0.5\nsamples = 6\nvalue = [3, 3]"] ;
372 -> 373 ;
374 [label="gini = 0.0\nsamples = 3\nvalue = [3, 0]"] ;
373 -> 374 ;
375 [label="gini = 0.0\nsamples = 3\nvalue = [0, 3]"] ;
373 -> 375 ;
376 [label="NumCompaniesWorked <= 0.5\ngini = 0.098\nsamples = 174\nvalue = [165, 9]"] ;
372 -> 376 ;
377 [label="Education <= 2.5\ngini = 0.266\nsamples = 38\nvalue = [32, 6]"] ;
376 -> 377 ;
378 [label="DistanceFromHome <= 6.5\ngini = 0.444\nsamples = 6\nvalue = [2, 4]"] ;
377 -> 378 ;
379 [label="gini = 0.0\nsamples = 2\nvalue = [2, 0]"] ;
378 -> 379 ;
380 [label="gini = 0.0\nsamples = 4\nvalue = [0, 4]"] ;
378 -> 380 ;
381 [label="JobRole <= 7.5\ngini = 0.117\nsamples = 32\nvalue = [30, 2]"] ;
377 -> 381 ;
382 [label="gini = 0.0\nsamples = 28\nvalue = [28, 0]"] ;
381 -> 382 ;
383 [label="YearsSinceLastPromotion <= 2.0\ngini = 0.5\nsamples = 4\nvalue = [2, 2]"] ;
381 -> 383 ;
384 [label="gini = 0.0\nsamples = 2\nvalue = [2, 0]"] ;
383 -> 384 ;
385 [label="gini = 0.0\nsamples = 2\nvalue = [0, 2]"] ;
383 -> 385 ;
386 [label="DistanceFromHome <= 19.5\ngini = 0.043\nsamples = 136\nvalue = [133, 3]"] ;
376 -> 386 ;
387 [label="gini = 0.0\nsamples = 108\nvalue = [108, 0]"] ;
386 -> 387 ;
388 [label="DistanceFromHome <= 21.5\ngini = 0.191\nsamples = 28\nvalue = [25, 3]"] ;
386 -> 388 ;
389 [label="gini = 0.0\nsamples = 3\nvalue = [0, 3]"] ;
388 -> 389 ;
390 [label="gini = 0.0\nsamples = 25\nvalue = [25, 0]"] ;
388 -> 390 ;
391 [label="gini = 0.0\nsamples = 3\nvalue = [0, 3]"] ;
359 -> 391 ;
392 [label="Age <= 35.5\ngini = 0.244\nsamples = 414\nvalue = [355, 59]"] ;
290 -> 392 ;
393 [label="YearsWithCurrManager <= 6.5\ngini = 0.384\nsamples = 143\nvalue = [106, 37]"] ;
392 -> 393 ;
394 [label="gini = 0.0\nsamples = 32\nvalue = [32, 0]"] ;
393 -> 394 ;
395 [label="YearsWithCurrManager <= 7.5\ngini = 0.444\nsamples = 111\nvalue = [74, 37]"] ;
393 -> 395 ;
396 [label="Education <= 2.5\ngini = 0.498\nsamples = 53\nvalue = [25, 28]"] ;
395 -> 396 ;
397 [label="JobRole <= 6.5\ngini = 0.363\nsamples = 21\nvalue = [16, 5]"] ;
396 -> 397 ;
398 [label="Age <= 29.5\ngini = 0.198\nsamples = 18\nvalue = [16, 2]"] ;
397 -> 398 ;
399 [label="gini = 0.0\nsamples = 2\nvalue = [0, 2]"] ;
398 -> 399 ;
400 [label="gini = 0.0\nsamples = 16\nvalue = [16, 0]"] ;
398 -> 400 ;
401 [label="gini = 0.0\nsamples = 3\nvalue = [0, 3]"] ;
397 -> 401 ;
402 [label="PercentSalaryHike <= 13.5\ngini = 0.404\nsamples = 32\nvalue = [9, 23]"] ;
396 -> 402 ;
403 [label="gini = 0.0\nsamples = 14\nvalue = [0, 14]"] ;
402 -> 403 ;
404 [label="MonthlyIncome <= 35340.0\ngini = 0.5\nsamples = 18\nvalue = [9, 9]"] ;
402 -> 404 ;
405 [label="gini = 0.0\nsamples = 7\nvalue = [0, 7]"] ;
404 -> 405 ;
406 [label="Age <= 29.0\ngini = 0.298\nsamples = 11\nvalue = [9, 2]"] ;
404 -> 406 ;
407 [label="gini = 0.0\nsamples = 2\nvalue = [0, 2]"] ;
406 -> 407 ;
408 [label="gini = 0.0\nsamples = 9\nvalue = [9, 0]"] ;
406 -> 408 ;
409 [label="JobRole <= 0.5\ngini = 0.262\nsamples = 58\nvalue = [49, 9]"] ;
395 -> 409 ;
410 [label="gini = 0.0\nsamples = 3\nvalue = [0, 3]"] ;
409 -> 410 ;
411 [label="Education <= 2.5\ngini = 0.194\nsamples = 55\nvalue = [49, 6]"] ;
409 -> 411 ;
412 [label="Age <= 32.5\ngini = 0.432\nsamples = 19\nvalue = [13, 6]"] ;
411 -> 412 ;
413 [label="gini = 0.0\nsamples = 10\nvalue = [10, 0]"] ;
412 -> 413 ;
414 [label="DistanceFromHome <= 14.0\ngini = 0.444\nsamples = 9\nvalue = [3, 6]"] ;
412 -> 414 ;
415 [label="gini = 0.0\nsamples = 6\nvalue = [0, 6]"] ;
414 -> 415 ;
416 [label="gini = 0.0\nsamples = 3\nvalue = [3, 0]"] ;
414 -> 416 ;
417 [label="gini = 0.0\nsamples = 36\nvalue = [36, 0]"] ;
411 -> 417 ;
418 [label="MonthlyIncome <= 17140.0\ngini = 0.149\nsamples = 271\nvalue = [249, 22]"] ;
392 -> 418 ;
419 [label="TotalWorkingYears <= 25.0\ngini = 0.48\nsamples = 5\nvalue = [2, 3]"] ;
418 -> 419 ;
420 [label="gini = 0.0\nsamples = 2\nvalue = [2, 0]"] ;
419 -> 420 ;
421 [label="gini = 0.0\nsamples = 3\nvalue = [0, 3]"] ;
419 -> 421 ;
422 [label="YearsSinceLastPromotion <= 14.5\ngini = 0.133\nsamples = 266\nvalue = [247, 19]"] ;
418 -> 422 ;
423 [label="Age <= 40.5\ngini = 0.1\nsamples = 245\nvalue = [232, 13]"] ;
422 -> 423 ;
424 [label="gini = 0.0\nsamples = 112\nvalue = [112, 0]"] ;
423 -> 424 ;
425 [label="TotalWorkingYears <= 13.0\ngini = 0.176\nsamples = 133\nvalue = [120, 13]"] ;
423 -> 425 ;
426 [label="Education <= 1.5\ngini = 0.397\nsamples = 33\nvalue = [24, 9]"] ;
425 -> 426 ;
427 [label="gini = 0.0\nsamples = 5\nvalue = [0, 5]"] ;
426 -> 427 ;
428 [label="Age <= 48.0\ngini = 0.245\nsamples = 28\nvalue = [24, 4]"] ;
426 -> 428 ;
429 [label="gini = 0.0\nsamples = 21\nvalue = [21, 0]"] ;
428 -> 429 ;
430 [label="Education <= 3.5\ngini = 0.49\nsamples = 7\nvalue = [3, 4]"] ;
428 -> 430 ;
431 [label="gini = 0.0\nsamples = 4\nvalue = [0, 4]"] ;
430 -> 431 ;
432 [label="gini = 0.0\nsamples = 3\nvalue = [3, 0]"] ;
430 -> 432 ;
433 [label="MonthlyIncome <= 23120.0\ngini = 0.077\nsamples = 100\nvalue = [96, 4]"] ;
425 -> 433 ;
434 [label="MonthlyIncome <= 21795.0\ngini = 0.5\nsamples = 6\nvalue = [3, 3]"] ;
433 -> 434 ;
435 [label="gini = 0.0\nsamples = 3\nvalue = [3, 0]"] ;
434 -> 435 ;
436 [label="gini = 0.0\nsamples = 3\nvalue = [0, 3]"] ;
434 -> 436 ;
437 [label="JobRole <= 1.0\ngini = 0.021\nsamples = 94\nvalue = [93, 1]"] ;
433 -> 437 ;
438 [label="DistanceFromHome <= 13.0\ngini = 0.444\nsamples = 3\nvalue = [2, 1]"] ;
437 -> 438 ;
439 [label="gini = 0.0\nsamples = 1\nvalue = [0, 1]"] ;
438 -> 439 ;
440 [label="gini = 0.0\nsamples = 2\nvalue = [2, 0]"] ;
438 -> 440 ;
441 [label="gini = 0.0\nsamples = 91\nvalue = [91, 0]"] ;
437 -> 441 ;
442 [label="Age <= 42.0\ngini = 0.408\nsamples = 21\nvalue = [15, 6]"] ;
422 -> 442 ;
443 [label="gini = 0.0\nsamples = 6\nvalue = [0, 6]"] ;
442 -> 443 ;
444 [label="gini = 0.0\nsamples = 15\nvalue = [15, 0]"] ;
442 -> 444 ;
445 [label="MonthlyIncome <= 21315.0\ngini = 0.269\nsamples = 375\nvalue = [315, 60]"] ;
289 -> 445 ;
446 [label="MonthlyIncome <= 20975.0\ngini = 0.444\nsamples = 12\nvalue = [4, 8]"] ;
445 -> 446 ;
447 [label="TrainingTimesLastYear <= 1.0\ngini = 0.444\nsamples = 6\nvalue = [4, 2]"] ;
446 -> 447 ;
448 [label="gini = 0.0\nsamples = 2\nvalue = [0, 2]"] ;
447 -> 448 ;
449 [label="gini = 0.0\nsamples = 4\nvalue = [4, 0]"] ;
447 -> 449 ;
450 [label="gini = 0.0\nsamples = 6\nvalue = [0, 6]"] ;
446 -> 450 ;
451 [label="MonthlyIncome <= 192545.0\ngini = 0.245\nsamples = 363\nvalue = [311, 52]"] ;
445 -> 451 ;
452 [label="Age <= 34.5\ngini = 0.226\nsamples = 354\nvalue = [308, 46]"] ;
451 -> 452 ;
453 [label="YearsSinceLastPromotion <= 0.5\ngini = 0.39\nsamples = 79\nvalue = [58, 21]"] ;
452 -> 453 ;
454 [label="MonthlyIncome <= 44270.0\ngini = 0.5\nsamples = 35\nvalue = [18, 17]"] ;
453 -> 454 ;
455 [label="DistanceFromHome <= 3.5\ngini = 0.34\nsamples = 23\nvalue = [18, 5]"] ;
454 -> 455 ;
456 [label="NumCompaniesWorked <= 8.0\ngini = 0.408\nsamples = 7\nvalue = [2, 5]"] ;
455 -> 456 ;
457 [label="gini = 0.0\nsamples = 5\nvalue = [0, 5]"] ;
456 -> 457 ;
458 [label="gini = 0.0\nsamples = 2\nvalue = [2, 0]"] ;
456 -> 458 ;
459 [label="gini = 0.0\nsamples = 16\nvalue = [16, 0]"] ;
455 -> 459 ;
460 [label="gini = 0.0\nsamples = 12\nvalue = [0, 12]"] ;
454 -> 460 ;
461 [label="DistanceFromHome <= 1.5\ngini = 0.165\nsamples = 44\nvalue = [40, 4]"] ;
453 -> 461 ;
462 [label="MonthlyIncome <= 70025.0\ngini = 0.5\nsamples = 6\nvalue = [3, 3]"] ;
461 -> 462 ;
463 [label="gini = 0.0\nsamples = 3\nvalue = [0, 3]"] ;
462 -> 463 ;
464 [label="gini = 0.0\nsamples = 3\nvalue = [3, 0]"] ;
462 -> 464 ;
465 [label="PercentSalaryHike <= 21.0\ngini = 0.051\nsamples = 38\nvalue = [37, 1]"] ;
461 -> 465 ;
466 [label="gini = 0.0\nsamples = 37\nvalue = [37, 0]"] ;
465 -> 466 ;
467 [label="gini = 0.0\nsamples = 1\nvalue = [0, 1]"] ;
465 -> 467 ;
468 [label="JobRole <= 2.5\ngini = 0.165\nsamples = 275\nvalue = [250, 25]"] ;
452 -> 468 ;
469 [label="YearsSinceLastPromotion <= 3.5\ngini = 0.304\nsamples = 107\nvalue = [87, 20]"] ;
468 -> 469 ;
470 [label="Age <= 48.0\ngini = 0.153\nsamples = 84\nvalue = [77, 7]"] ;
469 -> 470 ;
471 [label="gini = 0.0\nsamples = 62\nvalue = [62, 0]"] ;
470 -> 471 ;
472 [label="NumCompaniesWorked <= 7.5\ngini = 0.434\nsamples = 22\nvalue = [15, 7]"] ;
470 -> 472 ;
473 [label="DistanceFromHome <= 2.5\ngini = 0.42\nsamples = 10\nvalue = [3, 7]"] ;
472 -> 473 ;
474 [label="gini = 0.0\nsamples = 3\nvalue = [3, 0]"] ;
473 -> 474 ;
475 [label="gini = 0.0\nsamples = 7\nvalue = [0, 7]"] ;
473 -> 475 ;
476 [label="gini = 0.0\nsamples = 12\nvalue = [12, 0]"] ;
472 -> 476 ;
477 [label="TotalWorkingYears <= 17.5\ngini = 0.491\nsamples = 23\nvalue = [10, 13]"] ;
469 -> 477 ;
478 [label="gini = 0.0\nsamples = 11\nvalue = [0, 11]"] ;
477 -> 478 ;
479 [label="MonthlyIncome <= 61585.0\ngini = 0.278\nsamples = 12\nvalue = [10, 2]"] ;
477 -> 479 ;
480 [label="gini = 0.0\nsamples = 8\nvalue = [8, 0]"] ;
479 -> 480 ;
481 [label="YearsAtCompany <= 19.5\ngini = 0.5\nsamples = 4\nvalue = [2, 2]"] ;
479 -> 481 ;
482 [label="gini = 0.0\nsamples = 2\nvalue = [0, 2]"] ;
481 -> 482 ;
483 [label="gini = 0.0\nsamples = 2\nvalue = [2, 0]"] ;
481 -> 483 ;
484 [label="PercentSalaryHike <= 23.5\ngini = 0.058\nsamples = 168\nvalue = [163, 5]"] ;
468 -> 484 ;
485 [label="Age <= 36.5\ngini = 0.025\nsamples = 157\nvalue = [155, 2]"] ;
484 -> 485 ;
486 [label="YearsAtCompany <= 5.5\ngini = 0.198\nsamples = 18\nvalue = [16, 2]"] ;
485 -> 486 ;
487 [label="gini = 0.0\nsamples = 2\nvalue = [0, 2]"] ;
486 -> 487 ;
488 [label="gini = 0.0\nsamples = 16\nvalue = [16, 0]"] ;
486 -> 488 ;
489 [label="gini = 0.0\nsamples = 139\nvalue = [139, 0]"] ;
485 -> 489 ;
490 [label="JobRole <= 6.5\ngini = 0.397\nsamples = 11\nvalue = [8, 3]"] ;
484 -> 490 ;
491 [label="gini = 0.0\nsamples = 8\nvalue = [8, 0]"] ;
490 -> 491 ;
492 [label="gini = 0.0\nsamples = 3\nvalue = [0, 3]"] ;
490 -> 492 ;
493 [label="TrainingTimesLastYear <= 2.5\ngini = 0.444\nsamples = 9\nvalue = [3, 6]"] ;
451 -> 493 ;
494 [label="gini = 0.0\nsamples = 6\nvalue = [0, 6]"] ;
493 -> 494 ;
495 [label="gini = 0.0\nsamples = 3\nvalue = [3, 0]"] ;
493 -> 495 ;
496 [label="gini = 0.0\nsamples = 5\nvalue = [0, 5]"] ;
258 -> 496 ;
}